Cufon.registerFont({"w":500,"face":{"font-family":"ScalaSans Caps","font-weight":700,"font-variant":"small-caps","font-stretch":"normal","units-per-em":"1000","panose-1":"0 0 0 0 0 0 0 0 0 0","ascent":"800","descent":"-200","x-height":"10","bbox":"-25 -883 915 266","underline-thickness":"50","underline-position":"-125","stemh":"92","stemv":"119","unicode-range":"U+0020-U+00FF"},"glyphs":{" ":{"w":250},"!":{"d":"192,-548r-10,398r-99,0r-10,-398r119,0xm199,-52v0,37,-30,67,-67,67v-37,0,-67,-30,-67,-67v0,-37,30,-67,67,-67v37,0,67,30,67,67","w":264},"\"":{"d":"328,-433r-83,0r0,-227r83,0r0,227xm167,-433r-83,0r0,-227r83,0r0,227","w":412},"#":{"d":"571,-482r-22,101r-109,0r-17,94r110,0r-18,97r-111,0r-36,190r-108,0r35,-190r-97,0r-36,190r-108,0r37,-190r-112,0r18,-97r113,0r19,-94r-114,0r22,-101r114,0r34,-176r107,0r-34,176r96,0r33,-176r109,0r-33,176r108,0xm332,-381r-97,0r-17,94r95,0","w":550},"$":{"d":"437,-311v139,103,57,320,-124,324r0,56r-70,0r0,-56v-102,-12,-112,-18,-201,-57r51,-101v66,38,89,45,150,51r0,-195r-102,-66v-58,-41,-85,-88,-85,-147v0,-98,67,-160,187,-171r0,-56r70,0r0,56v90,6,102,9,175,43r-56,96v-56,-28,-74,-33,-119,-38r0,176xm243,-440r0,-132v-88,27,-84,88,0,132xm384,-161v0,-31,-20,-55,-71,-84r0,151v43,-5,71,-31,71,-67","w":543},"%":{"d":"816,-162v0,96,-79,175,-175,175v-97,0,-175,-79,-175,-175v0,-97,78,-175,175,-175v96,0,175,78,175,175xm750,-685r-565,729r-95,0r566,-729r94,0xm384,-495v0,97,-78,175,-175,175v-96,0,-175,-78,-175,-175v0,-97,79,-176,175,-176v97,0,175,79,175,176xm739,-162v0,-55,-44,-98,-98,-98v-55,0,-98,43,-98,98v0,54,43,98,98,98v54,0,98,-44,98,-98xm307,-495v0,-54,-43,-98,-98,-98v-54,0,-98,44,-98,98v0,54,44,98,98,98v55,0,98,-44,98,-98","w":850},"&":{"d":"511,-289v-6,80,-25,118,-63,171v19,21,23,26,39,26v22,0,38,-24,49,-35r69,42v-22,41,-30,53,-47,66v-20,17,-45,28,-86,28v-48,0,-72,-13,-102,-46v-12,9,-58,47,-151,47v-105,0,-164,-51,-164,-139v-4,-63,44,-117,110,-157v-31,-36,-68,-74,-66,-129v0,-87,61,-135,174,-135v107,0,162,39,162,105v0,71,-88,116,-113,132r-39,-47v0,0,36,-34,36,-68v0,-17,-15,-42,-48,-42v-25,0,-55,28,-55,52v0,15,12,40,41,75r126,151v18,-30,24,-67,26,-97r102,0xm310,-101r-90,-106v-17,17,-45,50,-41,62v0,34,21,64,53,64v38,0,61,-5,78,-20","w":625},"(":{"d":"297,-660v-130,254,-131,660,0,911r-107,0v-64,-110,-111,-305,-109,-454v-1,-159,45,-335,109,-457r107,0","w":309},")":{"d":"124,-660v64,110,112,303,109,454v2,161,-43,335,-109,457r-107,0v63,-135,98,-286,100,-457v1,-157,-40,-338,-100,-454r107,0","w":309},"*":{"d":"479,-479r-143,37r-28,-86r138,-54xm305,-685r-9,148r-90,0r-9,-148r108,0xm425,-311r-88,63r-79,-124r73,-53xm192,-528r-28,86r-143,-38r33,-102xm243,-372r-79,125r-87,-64r93,-114"},"+":{"d":"512,-196r-196,0r0,196r-82,0r0,-196r-196,0r0,-82r196,0r0,-196r82,0r0,196r196,0r0,82","w":550},",":{"d":"49,165v23,-44,42,-93,47,-149r-55,-134v72,-39,167,-34,163,61v0,61,-32,147,-83,222r-72,0","w":251},"-":{"d":"242,-174r-208,0r0,-111r208,0r0,111","w":276},".":{"d":"205,-67v0,44,-35,80,-79,80v-44,0,-80,-36,-80,-80v0,-45,36,-80,80,-80v44,0,79,35,79,80","w":251},"\/":{"d":"389,-660r-251,905r-120,0r252,-905r119,0","w":409},"0":{"d":"484,-334v0,203,-96,349,-229,349v-133,0,-229,-146,-229,-349v0,-202,96,-348,229,-348v133,0,229,146,229,348xm354,-334v0,-132,-44,-237,-99,-237v-55,0,-99,106,-99,237v0,133,44,238,100,238v54,0,98,-106,98,-238"},"1":{"d":"342,0r-126,0r0,-553r-151,0r0,-107r277,0r0,660"},"2":{"d":"18,-566v91,-67,130,-88,246,-97v111,0,179,65,179,173v3,145,-145,285,-224,383r245,0r0,107r-415,0r0,-82v79,-95,181,-206,240,-312v36,-58,30,-160,-47,-159v-79,11,-102,29,-168,81"},"3":{"d":"397,-523v-4,70,-39,127,-99,152v80,7,130,69,130,162v0,130,-94,218,-232,218v-59,0,-93,-8,-162,-40r44,-95v52,30,75,38,109,38v61,0,110,-49,110,-111v-5,-57,-22,-96,-94,-90r-75,0r0,-88v87,-8,130,-43,138,-116v0,-42,-23,-66,-63,-66v-60,7,-52,14,-119,50r-50,-82v57,-44,116,-72,198,-75v103,0,165,53,165,143"},"4":{"d":"486,-157r-94,0r0,157r-113,0r0,-157r-264,0r0,-69r308,-434r69,0r0,409r94,0r0,94xm279,-251r0,-195r-132,195r132,0"},"5":{"d":"201,-427v149,-2,234,77,236,205v-2,156,-128,266,-294,228v-35,-6,-54,-12,-99,-31r38,-101v53,25,81,33,115,33v64,0,113,-50,113,-116v3,-94,-66,-125,-228,-124r0,-327r333,0r0,100r-214,0r0,133"},"6":{"d":"479,-219v0,141,-83,234,-210,234v-150,0,-232,-110,-232,-312v-2,-161,65,-278,176,-334v56,-31,130,-39,238,-35r0,100v-170,-6,-263,26,-277,189v149,-74,309,-17,305,158xm275,-298v-34,3,-81,9,-107,21v6,131,35,188,96,188v51,0,89,-49,89,-115v0,-56,-31,-94,-78,-94"},"7":{"d":"453,-572r-107,270v-12,31,-28,68,-48,113v-35,81,-48,108,-91,189r-138,0v27,-49,48,-86,60,-110v67,-130,132,-298,185,-443r-257,0r0,-107r396,0r0,88"},"8":{"d":"469,-168v0,107,-97,187,-227,187v-123,0,-216,-70,-216,-163v-3,-74,83,-161,148,-202v-52,-37,-126,-92,-122,-169v0,-93,90,-167,202,-167v104,0,178,63,178,152v3,77,-67,131,-113,172v63,42,157,107,150,190xm281,-446v46,-40,50,-148,-30,-146v-78,-2,-104,99,-46,146r38,37xm343,-160v9,-44,-61,-99,-100,-129v-38,28,-97,79,-92,128v0,46,42,85,91,85v55,0,101,-39,101,-84"},"9":{"d":"473,-358v2,161,-66,279,-176,334v-58,28,-107,35,-237,35r0,-100v136,0,166,-2,228,-58v27,-31,37,-59,48,-131v-149,74,-309,17,-305,-158v0,-141,84,-234,211,-234v149,0,231,111,231,312xm236,-357v33,-3,81,-9,106,-21v-6,-131,-35,-188,-96,-188v-51,0,-89,49,-89,115v0,56,31,94,79,94"},":":{"d":"205,-398v0,44,-35,80,-79,80v-44,0,-80,-36,-80,-80v0,-44,36,-80,80,-80v44,0,79,36,79,80xm205,-67v0,44,-35,80,-79,80v-44,0,-80,-36,-80,-80v0,-45,36,-80,80,-80v44,0,79,35,79,80","w":251},";":{"d":"204,-398v0,44,-35,80,-79,80v-44,0,-79,-36,-79,-80v0,-44,35,-80,79,-80v44,0,79,36,79,80xm49,165v23,-44,42,-93,47,-149r-55,-134v72,-39,167,-34,163,61v0,61,-32,147,-83,222r-72,0","w":251},"<":{"d":"511,0r-472,-210r0,-54r472,-210r0,80r-355,157r355,157r0,80","w":550},"=":{"d":"525,-272r-500,0r0,-82r500,0r0,82xm525,-109r-500,0r0,-82r500,0r0,82","w":550},">":{"d":"511,-210r-472,210r0,-80r355,-157r-355,-157r0,-80r472,210r0,54","w":550},"?":{"d":"352,-330v3,82,-52,122,-131,116r0,68r-114,0r0,-156r123,0v22,-93,-36,-135,-150,-152r23,-99v81,8,107,15,140,34v67,38,109,106,109,189xm231,-52v0,37,-30,67,-67,67v-37,0,-67,-30,-67,-67v0,-37,30,-67,67,-67v37,0,67,30,67,67","w":418},"@":{"d":"679,136v-274,135,-584,-87,-581,-369v0,-223,188,-412,410,-412v218,0,401,174,401,381v0,159,-104,274,-248,274v-93,5,-130,-59,-112,-146v-38,74,-87,130,-167,130v-54,0,-94,-67,-94,-158v0,-177,109,-315,248,-315v41,0,74,7,153,30r-60,338v0,29,16,43,49,43v80,0,140,-81,140,-188v0,-162,-138,-296,-307,-296v-174,0,-319,145,-319,320v-5,219,242,390,454,282xm572,-375v-115,-43,-166,61,-174,198v1,100,51,54,91,10v41,-52,73,-136,83,-208","w":1000},"A":{"d":"593,0r-132,0r-52,-163r-221,0r-54,163r-132,0r239,-660r113,0xm375,-270r-77,-239r-76,239r153,0","w":595},"B":{"d":"540,-498v-3,81,-57,154,-146,152v100,2,163,67,163,170v0,114,-72,176,-204,176r-269,0r0,-660r239,0v144,-7,205,53,217,162xm400,-476v0,-53,-38,-84,-102,-84r-82,0r0,170r75,0v71,0,109,-30,109,-86xm298,-101v80,4,116,-27,121,-89v0,-60,-43,-93,-121,-93r-82,0r0,182r82,0","w":591},"C":{"d":"25,-333v2,-191,143,-349,350,-339v84,0,150,20,207,63r-48,100v-43,-31,-94,-46,-152,-46v-127,0,-218,90,-218,215v-6,198,200,288,383,204r23,106v-70,33,-107,40,-195,43v-215,7,-347,-150,-350,-346","w":605},"D":{"d":"329,-660v221,-11,350,135,357,328v-5,194,-139,341,-358,332r-244,0r0,-660r245,0xm550,-331v-6,-141,-73,-223,-234,-218r-100,0r0,438r100,0v150,0,234,-79,234,-220","w":711},"E":{"d":"505,0r-415,0r0,-660r402,0r0,107r-276,0r0,163r226,0r0,107r-226,0r0,176r289,0r0,107","w":539},"F":{"d":"499,-553r-283,0r0,170r232,0r0,106r-232,0r0,277r-126,0r0,-660r409,0r0,107","w":522},"G":{"d":"604,-516v-61,-24,-125,-43,-190,-43v-148,0,-251,91,-251,222v-2,162,169,279,346,224r0,-182r126,0r0,270v-81,19,-158,40,-233,38v-219,0,-371,-140,-371,-344v2,-196,150,-349,367,-340v100,2,157,14,236,50","w":708},"H":{"d":"681,0r-126,0r0,-283r-339,0r0,283r-126,0r0,-660r126,0r0,264r339,0r0,-264r126,0r0,660","w":771},"I":{"d":"213,0r-126,0r0,-660r126,0r0,660","w":300},"J":{"d":"0,170v61,-97,84,-129,88,-264r0,-566r125,0r0,679v-30,99,-60,138,-119,214","w":300},"K":{"d":"574,0r-144,0r-220,-314r0,314r-126,0r0,-660r126,0r0,308r207,-308r145,0r-227,321","w":571},"L":{"d":"486,0r-396,0r0,-660r126,0r0,553r270,0r0,107","w":495},"M":{"d":"782,0r-120,0r0,-484v-5,34,-4,39,-25,94r-151,390r-113,0r-138,-383v-14,-38,-15,-49,-25,-105r0,488r-114,0r0,-660r151,0r176,471v7,19,10,26,13,51v4,-31,6,-35,12,-51r183,-471r151,0r0,660","w":878},"N":{"d":"662,6r-132,0r-283,-427v-11,-21,-24,-38,-31,-63r0,484r-120,0r0,-660r145,0r284,448v8,17,10,27,18,42r0,-490r119,0r0,666","w":759},"O":{"d":"732,-330v0,201,-145,343,-350,343v-206,0,-351,-142,-351,-343v-1,-204,142,-342,351,-342v208,0,350,138,350,342xm598,-330v0,-133,-92,-233,-216,-233v-125,0,-217,100,-217,233v0,134,92,233,217,233v124,0,216,-99,216,-233","w":763},"P":{"d":"316,-660v152,-5,226,69,231,202v-1,171,-134,258,-331,232r0,226r-126,0r0,-660r226,0xm417,-448v0,-72,-35,-105,-113,-105r-88,0r0,220r60,2v98,0,141,-36,141,-117","w":556},"Q":{"d":"497,0v41,71,82,97,163,138r-107,95v-97,-75,-160,-131,-226,-227v-41,-2,-59,-5,-82,-13v-127,-43,-214,-174,-214,-323v0,-204,142,-342,351,-342v208,0,350,138,350,342v-2,160,-93,292,-235,330xm598,-330v0,-133,-92,-233,-216,-233v-124,0,-217,100,-217,233v0,134,93,233,217,233v124,0,216,-99,216,-233","w":763},"R":{"d":"543,-468v-4,106,-43,163,-139,185r164,283r-138,0r-151,-264r-63,0r0,264r-126,0r0,-660v138,6,338,-24,399,49v36,33,54,81,54,143xm413,-465v0,-63,-33,-88,-115,-88r-82,0r0,182r82,0v80,0,115,-28,115,-94","w":584},"S":{"d":"505,-616r-50,113v-70,-31,-127,-47,-171,-47v-59,0,-97,24,-97,61v0,28,16,45,63,70v101,54,167,96,198,127v28,28,45,72,45,118v0,118,-86,187,-232,187v-96,0,-154,-29,-240,-70r53,-116v59,32,120,65,189,65v58,0,96,-26,96,-66v-1,-63,-113,-95,-160,-129v-117,-67,-153,-111,-153,-183v0,-135,126,-185,241,-185v85,0,143,19,218,55","w":534},"T":{"d":"530,-553r-198,0r0,553r-126,0r0,-553r-198,0r0,-107r522,0r0,107","w":539},"U":{"d":"627,-258v0,121,-22,175,-91,223v-83,64,-290,65,-373,0v-68,-47,-90,-102,-90,-223r0,-402r125,0r0,409v0,98,51,147,156,147v96,0,147,-52,147,-147r0,-409r126,0r0,402","w":700},"V":{"d":"580,-660r-245,679r-88,0r-245,-679r138,0r158,478v-3,-13,1,-24,6,-32r144,-446r132,0","w":583},"W":{"d":"863,-660r-239,673r-88,0r-100,-283r-101,283r-81,0r-252,-673r132,0r170,497r82,-220r-107,-277r113,0r50,132r44,-132r107,0r-101,264r95,226r157,-490r119,0","w":864},"X":{"d":"568,0r-145,0r-138,-233r-145,233r-138,0r214,-333r-201,-327r144,0r126,220r132,-220r145,0r-202,314","w":572},"Y":{"d":"549,-660r-220,377r0,283r-126,0r0,-283r-201,-377r138,0r132,258r139,-258r138,0","w":550},"Z":{"d":"564,0r-528,0r0,-82r358,-471r-352,0r0,-107r522,0r0,82r-352,471r352,0r0,107","w":595},"[":{"d":"245,245r-201,0r0,-905r201,0r0,88r-82,0r0,729r82,0r0,88","w":250},"\\":{"d":"395,245r-119,0r-258,-905r120,0","w":409},"]":{"d":"207,245r-201,0r0,-88r82,0r0,-729r-82,0r0,-88r201,0r0,905","w":250},"^":{"d":"496,0r-82,0r-157,-352r-158,352r-75,0r208,-472r56,0","w":522},"_":{"d":"500,82r-500,0r0,-82r500,0r0,82"},"a":{"d":"498,0r-128,0r-37,-108r-148,0r-39,108r-128,0r187,-491r106,0xm303,-200r-44,-157r-50,157r94,0","w":516},"b":{"d":"454,-135v0,91,-62,135,-175,135r-201,0r0,-491v159,6,352,-39,363,125v0,49,-22,92,-67,110v53,16,80,56,80,121xm312,-349v-3,-73,-55,-54,-115,-57r0,112v58,-2,115,14,115,-55xm326,-145v0,-59,-65,-65,-129,-61r0,121v65,3,134,-2,129,-60","w":495},"c":{"d":"495,-25v-62,27,-109,35,-173,35v-170,0,-276,-104,-276,-258v0,-150,109,-252,276,-252v76,0,121,21,166,46r-54,92v-22,-15,-51,-39,-107,-39v-82,0,-153,55,-153,148v0,98,73,164,167,164v57,0,86,-18,111,-29","w":516},"d":{"d":"561,-247v0,147,-96,247,-281,247r-192,0r0,-491r193,0v185,0,280,96,280,244xm435,-246v0,-76,-43,-151,-165,-151r-63,0r0,303v133,13,228,-37,228,-152","w":609},"e":{"d":"428,0r-338,0r0,-491r327,0r0,91r-208,0r0,104r171,0r0,91r-171,0r0,114r219,0r0,91","w":478},"f":{"d":"423,-400r-214,0r0,109r176,0r0,91r-176,0r0,200r-119,0r0,-491r333,0r0,91","w":463},"g":{"d":"551,-454r-49,91v-105,-74,-320,-48,-313,112v1,117,120,192,237,157r0,-135r119,0r0,210v-65,15,-119,29,-189,29v-161,0,-290,-86,-290,-256v-9,-236,287,-313,485,-208","w":624},"h":{"d":"578,0r-119,0r0,-205r-231,0r0,205r-119,0r0,-491r119,0r0,191r231,0r0,-191r119,0r0,491","w":687},"i":{"d":"215,0r-120,0r0,-491r120,0r0,491","w":310},"j":{"d":"207,16v-31,75,-58,102,-113,157r-78,-55v0,0,43,-49,56,-76v20,-42,16,-71,16,-114r0,-419r119,0r0,507","w":291},"k":{"d":"491,0r-121,0r-143,-203r0,203r-119,0r0,-491r119,0r0,196r132,-196r124,0r-168,239","w":534},"l":{"d":"409,0r-321,0r0,-491r119,0r0,399r202,0r0,92","w":436},"m":{"d":"645,0r-110,0r0,-284r-137,286r-51,0r-127,-280r0,278r-106,0r0,-491r123,0r140,327r146,-327r122,0r0,491","w":763},"n":{"d":"555,1r-118,0r-214,-318r0,317r-110,0r0,-491r128,0r204,320r0,-320r110,0r0,492","w":668},"o":{"d":"601,-245v0,153,-109,255,-277,255v-169,0,-278,-102,-278,-255v-1,-156,107,-255,278,-255v171,0,277,99,277,255xm474,-245v0,-87,-71,-162,-150,-162v-80,0,-151,75,-151,162v0,87,71,162,151,162v79,0,150,-75,150,-162","w":647},"p":{"d":"463,-337v4,131,-95,186,-249,176r0,161r-119,0r0,-491r182,0v126,0,186,46,186,154xm341,-330v1,-63,-57,-78,-127,-71r0,149v73,6,129,-17,127,-78","w":495},"q":{"d":"413,2v31,38,79,65,127,86r-82,84v-64,-34,-146,-97,-186,-162v-131,-14,-229,-115,-226,-254v0,-157,107,-256,278,-256v171,0,277,99,277,256v0,109,-56,213,-188,246xm474,-244v0,-87,-71,-163,-150,-163v-79,0,-151,76,-151,163v0,88,72,163,151,163v79,0,150,-75,150,-163","w":647},"r":{"d":"472,0r-136,0r-104,-196r-25,0r0,196r-119,0r0,-491v171,8,364,-48,365,147v0,82,-39,125,-97,138xm331,-342v0,-32,-17,-61,-65,-61r-59,0r0,122r59,0v46,0,65,-30,65,-61","w":513},"s":{"d":"423,-459r-51,95v-51,-27,-80,-34,-127,-34v-31,0,-61,10,-61,34v0,32,46,52,96,78v72,38,134,59,134,152v0,94,-71,144,-186,144v-83,0,-135,-22,-192,-52r52,-94v48,27,92,44,141,44v30,0,61,-9,61,-37v0,-39,-95,-76,-120,-89v-87,-48,-116,-78,-116,-139v-3,-167,249,-167,369,-102","w":464},"t":{"d":"433,-400r-149,0r0,400r-120,0r0,-400r-149,0r0,-91r418,0r0,91","w":448},"u":{"d":"526,-193v0,88,-24,128,-72,167v-55,44,-242,43,-297,0v-48,-37,-69,-71,-69,-167r0,-298r119,0r0,303v0,61,40,102,105,102v68,0,98,-51,98,-102r0,-303r116,0r0,298","w":614},"v":{"d":"487,-491r-192,505r-87,0r-192,-505r128,0r115,324r104,-324r124,0","w":503},"w":{"d":"706,-491r-186,501r-85,0r-68,-174r-68,174r-80,0r-196,-501r124,0r123,341r49,-125r-88,-216r110,0r32,98r28,-98r93,0r-72,209r51,136r120,-345r113,0","w":729},"x":{"d":"473,0r-127,0r-98,-159r-103,159r-121,0r158,-248r-149,-243r127,0r89,149r93,-149r127,0r-149,234","w":497},"y":{"d":"457,-491r-165,286r0,205r-119,0r0,-205r-152,-286r129,0r91,173r96,-173r120,0","w":478},"z":{"d":"465,0r-421,0r0,-74r265,-326r-260,0r0,-91r416,0r0,74r-261,325r261,0r0,92","w":509},"{":{"d":"165,-250v134,-3,82,189,94,313v1,83,36,107,113,100r-2,93r-82,0v-87,0,-130,-45,-130,-134r0,-210v-4,-90,-32,-129,-113,-119r0,-82v81,8,111,-22,113,-113r0,-209v0,-89,43,-133,130,-133r82,0r2,78v-77,-6,-113,15,-113,100v-5,94,14,217,-21,280v-15,25,-25,30,-73,36","w":409},"|":{"d":"180,240r-111,0r0,-968r111,0r0,968","w":250},"}":{"d":"251,-239v-134,2,-82,-188,-93,-313v-1,-83,-36,-107,-113,-100r1,-92r82,0v88,0,131,44,131,133r0,210v4,91,31,130,113,120r0,82v-81,-8,-111,21,-113,113r0,208v0,89,-43,134,-131,134r-82,0r-1,-78v77,6,113,-15,113,-101v5,-94,-16,-218,21,-280v15,-25,25,-29,72,-36","w":409},"~":{"d":"293,-246v78,36,142,13,200,-30r45,71v-50,39,-98,52,-166,61v-49,7,-141,-56,-202,-57v-40,0,-85,17,-125,48r-41,-69v63,-53,147,-90,239,-46","w":544},"\u00a1":{"d":"200,-440v0,37,-30,67,-67,67v-37,0,-67,-30,-67,-67v0,-37,30,-67,67,-67v37,0,67,30,67,67xm192,56r-119,0r10,-398r99,0","w":264},"\u00a2":{"d":"436,-32v-50,26,-118,48,-186,45r-16,81r-62,0r17,-90v-107,-31,-165,-113,-165,-232v0,-156,98,-251,258,-251r13,-71r63,0r-14,78v43,11,54,16,92,39r-57,91v-21,-17,-27,-20,-55,-31r-54,284v44,1,68,-9,122,-40xm262,-376v-119,7,-152,213,-52,271","w":444},"\u00a3":{"d":"684,-629r-90,57v-31,-55,-41,-64,-77,-64v-50,0,-67,27,-111,177r-82,277r164,0r-29,88r-164,0v-21,78,-27,139,-68,207v80,-9,129,26,202,31v43,3,40,-54,27,-87r85,-19v47,117,-10,213,-146,209v-102,-2,-185,-52,-292,-26r-108,24r0,-94v103,-32,125,-49,157,-157r24,-88r-107,0r27,-76r103,-12r96,-340v27,-94,48,-135,84,-165v49,-43,152,-61,222,-28v31,14,51,35,83,86","w":576},"\u00a5":{"d":"549,-660r-189,324r115,-1r0,64r-146,0r0,69r146,0r0,67r-146,0r0,137r-126,0r0,-137r-145,0r0,-67r145,0r0,-69r-145,0r0,-64r117,1r-173,-324r138,0r132,258r139,-258r138,0","w":550},"\u00a7":{"d":"189,-475v-5,127,90,484,72,565r-63,11v-2,-124,-73,-256,-93,-356v-19,-68,-33,-163,-33,-222v0,-161,74,-250,209,-250v108,4,133,14,195,83r-71,52v-28,-42,-55,-56,-104,-56v-75,0,-112,57,-112,173xm329,15v6,-127,-89,-486,-72,-563r64,-14v2,85,14,98,39,182v45,131,83,253,87,396v0,161,-75,250,-209,250v-108,-4,-134,-14,-196,-83r72,-51v28,41,54,55,103,55v76,0,112,-56,112,-172","w":519},"\u00a4":{"d":"387,-389v-24,-21,-41,-36,-87,-36v-33,0,-66,37,-84,87r157,0r-7,60r-165,0r-1,46r163,0r-5,60r-146,0v17,52,49,91,80,91v38,0,66,-12,99,-33r39,82v-51,30,-87,45,-149,45v-106,0,-173,-78,-194,-185r-88,0r0,-48r81,-12r1,-46r-75,0r0,-48r84,-12v25,-105,94,-181,199,-181v59,0,93,11,141,45"},"'":{"d":"167,-433r-83,0r0,-227r83,0r0,227","w":251},"\u00ab":{"d":"509,-31r-245,-195r245,-195r0,119r-100,76r100,75r0,120xm270,-31r-245,-195r245,-195r0,119r-100,76r100,75r0,120","w":560},"\u00b7":{"d":"204,-235v0,45,-35,80,-79,80v-44,0,-79,-35,-79,-80v0,-44,35,-79,79,-79v44,0,79,35,79,79","w":250},"\u00b6":{"d":"52,-481v-2,-149,106,-253,262,-248r271,0r0,968r-101,0r0,-899r-75,0r0,899r-101,0r0,-478r-44,0v-105,-5,-224,-116,-212,-242","w":644},"\u00bb":{"d":"534,-226r-245,195r0,-120r101,-75r-101,-76r0,-119xm295,-226r-245,195r0,-120r101,-75r-101,-76r0,-119","w":560},"\u00bf":{"d":"341,-439v0,37,-30,67,-67,67v-37,0,-67,-30,-67,-67v0,-37,30,-67,67,-67v37,0,67,30,67,67xm353,-36r-22,99v-83,-9,-108,-15,-141,-34v-66,-37,-108,-106,-108,-189v0,-81,37,-115,131,-116r0,-68r114,0r0,156r-123,0v-4,19,-6,25,-6,35v0,59,51,104,155,117","w":418},"`":{"d":"317,-517r-80,0r-113,-164r99,0","w":383},"\u00b4":{"d":"417,-681r-113,164r-81,0r95,-164r99,0","w":383},"\u00af":{"d":"341,-539r-273,0r0,-63r273,0r0,63","w":406},"\u00a8":{"d":"341,-567v0,32,-26,57,-58,57v-31,0,-57,-25,-57,-57v0,-32,26,-57,57,-57v32,0,58,25,58,57xm180,-567v0,32,-25,57,-57,57v-32,0,-57,-25,-57,-57v0,-32,25,-57,57,-57v32,0,57,25,57,57","w":416},"\u00b8":{"d":"334,145v0,53,-40,91,-95,91v-26,0,-42,-3,-99,-22r25,-51v37,16,57,22,77,22v23,0,40,-16,40,-37v0,-41,-49,-43,-98,-41r57,-94r50,0r-31,56v47,0,74,27,74,76","w":444},"\u00c6":{"d":"760,0r-399,0r0,-157r-174,0r-71,157r-132,0r315,-660r449,0r0,107r-267,0r0,163r216,0r0,107r-216,0r0,176r279,0r0,107xm361,-264r0,-285r-128,285r128,0","w":794},"\u00aa":{"d":"329,-319r-26,-72r-89,0r-27,72r-112,0r139,-344r88,0r139,344r-112,0xm258,-532r-21,61r39,0","w":439},"\u00d8":{"d":"732,-330v0,201,-145,343,-350,343v-82,0,-157,-24,-227,-73r-70,72r-57,-53r75,-69v-52,-75,-72,-136,-72,-219v0,-204,142,-343,349,-343v96,0,169,23,228,71r66,-65r58,52r-71,68v47,61,71,134,71,216xm517,-513v-139,-130,-361,-13,-352,181v0,53,10,92,32,128xm384,-92v165,10,270,-211,183,-363r-320,310v41,35,87,53,137,53","w":763},"\u00ba":{"d":"324,-323v-123,0,-204,-71,-205,-178v0,-110,80,-179,205,-179v124,0,204,69,204,178v0,108,-82,179,-204,179xm324,-599v-50,0,-96,44,-96,97v0,54,46,98,96,98v49,0,95,-44,95,-98v0,-53,-46,-97,-95,-97","w":550},"\u00e6":{"d":"636,0r-331,0r0,-108r-110,0r-52,108r-121,0r238,-491r367,0r0,91r-208,0r0,103r169,0r0,94r-169,0r0,111r217,0r0,92xm305,-200r0,-156r-71,156r71,0","w":686},"\u00f8":{"d":"601,-245v0,153,-109,255,-277,255v-66,0,-123,-16,-167,-44r-56,53r-54,-57r51,-48v-33,-42,-52,-96,-52,-159v0,-156,107,-255,278,-255v67,0,124,15,168,43r51,-48r54,56r-47,44v33,42,51,96,51,160xm408,-378v-120,-94,-291,58,-218,206xm240,-112v129,97,288,-69,217,-205","w":647},"\u00df":{"d":"887,-459r-51,95v-51,-27,-80,-34,-127,-34v-31,0,-61,10,-61,34v0,32,46,52,96,78v72,38,134,59,134,152v0,94,-71,144,-186,144v-83,0,-135,-22,-192,-52r52,-94v48,27,92,44,141,44v30,0,61,-9,61,-37v0,-39,-95,-76,-120,-89v-87,-48,-116,-78,-116,-139v-3,-167,249,-167,369,-102xm423,-459r-51,95v-51,-27,-80,-34,-127,-34v-31,0,-61,10,-61,34v0,32,46,52,96,78v72,38,134,59,134,152v0,94,-71,144,-186,144v-83,0,-135,-22,-192,-52r52,-94v48,27,92,44,141,44v30,0,61,-9,61,-37v0,-39,-95,-76,-120,-89v-87,-48,-116,-78,-116,-139v-3,-167,249,-167,369,-102","w":928},"\u00d0":{"d":"329,-660v221,-11,350,135,357,328v-5,194,-139,341,-358,332r-244,0r0,-301r-109,0r0,-86r109,0r0,-273r245,0xm550,-331v-6,-141,-73,-223,-234,-218r-100,0r0,162r147,0r0,86r-147,0r0,190r100,0v150,0,234,-79,234,-220","w":711},"\u00f0":{"d":"561,-247v0,147,-96,247,-281,247r-192,0r0,-215r-109,0r0,-86r109,0r0,-190r193,0v185,0,280,96,280,244xm435,-246v0,-76,-43,-151,-165,-151r-63,0r0,96r100,0r0,86r-100,0r0,121v133,13,228,-37,228,-152","w":609},"\u00dd":{"d":"549,-660r-220,377r0,283r-126,0r0,-283r-201,-377r138,0r132,258r139,-258r138,0xm431,-808r-113,118r-93,0r95,-118r111,0","w":550},"\u00fd":{"d":"457,-491r-165,286r0,205r-119,0r0,-205r-152,-286r129,0r91,173r96,-173r120,0xm370,-681r-92,165r-88,0r76,-165r104,0","w":478},"\u00de":{"d":"316,-558v152,-5,226,69,231,202v-1,171,-134,258,-331,232r0,124r-126,0r0,-660r126,0r0,102r100,0xm417,-346v0,-72,-35,-105,-113,-105r-88,0r0,220v20,1,40,2,60,2v98,0,141,-36,141,-117","w":556},"\u00fe":{"d":"463,-256v4,131,-95,186,-249,176r0,80r-119,0r0,-491r119,0r0,81v147,-8,257,23,249,154xm341,-249v1,-63,-57,-78,-127,-71r0,149v73,6,129,-17,127,-78","w":495},"\u00bd":{"d":"717,-685r-555,729r-95,0r556,-729r94,0xm124,-263r0,-319r-91,0r0,-78r184,0r0,397r-93,0xm539,-337v64,-44,82,-57,159,-62v71,0,117,41,117,108v0,85,-73,153,-125,213r137,0r0,78r-267,0r0,-59v44,-49,111,-120,146,-181v18,-28,17,-80,-21,-79v-38,0,-77,30,-103,51","w":850},"\u00bc":{"d":"740,-685r-555,729r-95,0r556,-729r94,0xm749,-91r0,91r-85,0r0,-91r-159,0r0,-50r189,-256r55,0r0,236r56,0r0,70r-56,0xm664,-239r-55,78r55,0r0,-78xm138,-263r0,-319r-91,0r0,-78r184,0r0,397r-93,0","w":850},"\u00b9":{"d":"141,-263r0,-319r-91,0r0,-78r184,0r0,397r-93,0","w":321},"\u00be":{"d":"750,-685r-555,729r-95,0r556,-729r94,0xm749,-91r0,91r-85,0r0,-91r-159,0r0,-50r189,-256r55,0r0,236r56,0r0,70r-56,0xm664,-239r-55,78r55,0r0,-78xm142,-592v-35,5,-38,13,-74,32r-39,-61v40,-28,79,-49,131,-49v65,0,108,33,108,91v0,30,-18,67,-45,84v40,13,63,49,63,97v0,122,-144,170,-257,107r34,-71v39,22,51,26,70,26v32,0,57,-25,57,-56v-4,-28,-7,-47,-48,-44r-54,0r0,-66v59,-7,75,-17,84,-60v0,-20,-11,-30,-30,-30","w":850},"\u00b3":{"d":"145,-592v-37,5,-38,13,-75,32r-39,-61v40,-28,79,-49,131,-49v66,0,108,33,108,91v0,30,-18,67,-44,84v39,13,63,49,63,97v1,121,-146,170,-258,107r35,-71v39,22,51,26,69,26v32,0,58,-25,58,-56v0,-27,-7,-47,-48,-44r-54,0r0,-66v58,-7,74,-17,83,-60v0,-20,-10,-30,-29,-30","w":323},"\u00b2":{"d":"23,-611v64,-45,84,-55,159,-62v72,0,117,41,117,108v0,85,-73,153,-125,213r137,0r0,78r-267,0r0,-58v44,-50,111,-121,146,-181v18,-29,18,-81,-21,-80v-37,0,-77,30,-103,51","w":324},"\u00a6":{"d":"180,240r-111,0r0,-419r111,0r0,419xm180,-309r-111,0r0,-419r111,0r0,419","w":250},"\u00d7":{"d":"519,-40r-58,58r-186,-186r-186,186r-58,-58r186,-186r-186,-186r58,-58r186,186r186,-186r58,58r-186,186","w":550},"\u00c4":{"d":"439,-727v0,30,-25,54,-55,54v-30,0,-54,-24,-54,-54v0,-31,24,-55,54,-55v30,0,55,24,55,55xm274,-730v0,30,-24,55,-54,55v-30,0,-55,-25,-55,-55v0,-30,25,-54,55,-54v30,0,54,24,54,54xm593,0r-132,0r-52,-163r-221,0r-54,163r-132,0r239,-660r113,0xm375,-270r-77,-239r-76,239r153,0","w":595},"\u00c5":{"d":"392,-786v0,53,-43,96,-96,96v-54,0,-97,-43,-97,-96v0,-53,43,-97,97,-97v53,0,96,44,96,97xm593,0r-132,0r-52,-163r-221,0r-54,163r-132,0r239,-660r113,0xm337,-786v0,-23,-19,-42,-41,-42v-23,0,-42,19,-42,42v0,23,19,41,42,41v22,0,41,-18,41,-41xm375,-270r-77,-239r-76,239r153,0","w":595},"\u00c7":{"d":"25,-333v2,-191,143,-349,350,-339v84,0,150,20,207,63r-48,100v-43,-31,-94,-46,-152,-46v-127,0,-218,90,-218,215v-6,198,200,288,383,204r23,106v-75,33,-92,37,-188,43r-32,57v53,0,84,28,84,75v0,55,-47,100,-104,100v-28,0,-60,-7,-103,-24r21,-56v32,13,55,19,73,19v21,0,37,-16,37,-37v0,-43,-49,-40,-94,-39r60,-97v-96,-15,-135,-31,-188,-80v-70,-63,-111,-161,-111,-264","w":605},"\u00c9":{"d":"441,-808r-113,118r-93,0r95,-118r111,0xm505,0r-415,0r0,-660r402,0r0,107r-276,0r0,163r226,0r0,107r-226,0r0,176r289,0r0,107","w":539},"\u00d1":{"d":"311,-809v36,-6,92,49,142,50v27,0,40,-6,84,-37r33,53v-32,34,-77,52,-129,56v-36,8,-109,-48,-143,-46v-23,-3,-51,15,-77,31r-33,-57v51,-32,67,-41,123,-50xm662,6r-132,0r-283,-427v-11,-21,-24,-38,-31,-63r0,484r-120,0r0,-660r145,0r284,448v8,17,10,27,18,42r0,-490r119,0r0,666","w":759},"\u00d6":{"d":"546,-736v0,30,-25,55,-55,55v-30,0,-54,-25,-54,-55v0,-30,24,-54,54,-54v30,0,55,24,55,54xm327,-736v0,30,-25,54,-55,54v-30,0,-54,-24,-54,-54v0,-30,24,-55,54,-55v30,0,55,25,55,55xm732,-330v0,201,-145,343,-350,343v-206,0,-351,-142,-351,-343v-1,-204,142,-342,351,-342v208,0,350,138,350,342xm598,-330v0,-133,-92,-233,-216,-233v-125,0,-217,100,-217,233v0,134,92,233,217,233v124,0,216,-99,216,-233","w":763},"\u00dc":{"d":"502,-727v0,30,-25,54,-55,54v-30,0,-54,-24,-54,-54v0,-31,24,-55,54,-55v30,0,55,24,55,55xm298,-728v0,30,-24,54,-55,54v-30,0,-54,-24,-54,-54v0,-30,24,-55,54,-55v31,0,55,25,55,55xm627,-258v0,121,-22,175,-91,223v-83,64,-290,65,-373,0v-68,-47,-90,-102,-90,-223r0,-402r125,0r0,409v0,98,51,147,156,147v96,0,147,-52,147,-147r0,-409r126,0r0,402","w":700},"\u00e1":{"d":"374,-681r-92,165r-89,0r77,-165r104,0xm498,0r-128,0r-37,-108r-148,0r-39,108r-128,0r187,-491r106,0xm303,-200r-44,-157r-50,157r94,0","w":516},"\u00e0":{"d":"297,-516r-88,0r-92,-165r103,0xm498,0r-128,0r-37,-108r-148,0r-39,108r-128,0r187,-491r106,0xm303,-200r-44,-157r-50,157r94,0","w":516},"\u00e2":{"d":"391,-515r-94,0r-42,-71r-41,71r-94,0r92,-165r87,0xm498,0r-128,0r-37,-108r-148,0r-39,108r-128,0r187,-491r106,0xm303,-200r-44,-157r-50,157r94,0","w":516},"\u00e4":{"d":"386,-569v0,32,-31,57,-58,57v-27,0,-59,-25,-59,-57v0,-32,32,-58,59,-58v27,0,58,26,58,58xm247,-569v0,32,-33,58,-59,58v-27,0,-58,-26,-58,-58v0,-31,31,-58,58,-58v26,0,59,27,59,58xm498,0r-128,0r-37,-108r-148,0r-39,108r-128,0r187,-491r106,0xm303,-200r-44,-157r-50,157r94,0","w":516},"\u00e3":{"d":"423,-566v-31,35,-68,57,-116,57v-58,0,-84,-46,-115,-46v-17,0,-40,15,-58,33r-43,-59v34,-27,64,-51,111,-51v53,0,84,50,115,50v14,0,50,-26,62,-40xm498,0r-128,0r-37,-108r-148,0r-39,108r-128,0r187,-491r106,0xm303,-200r-44,-157r-50,157r94,0","w":516},"\u00e5":{"d":"354,-593v0,53,-43,96,-96,96v-54,0,-97,-43,-97,-96v0,-53,43,-97,97,-97v53,0,96,44,96,97xm498,0r-128,0r-37,-108r-148,0r-39,108r-128,0r187,-491r106,0xm299,-593v0,-23,-19,-42,-41,-42v-23,0,-42,19,-42,42v0,23,19,41,42,41v22,0,41,-18,41,-41xm303,-200r-44,-157r-50,157r94,0","w":516},"\u00e7":{"d":"495,-25v-54,23,-97,32,-150,34r-22,59v55,0,77,36,77,76v0,43,-44,101,-116,101v-33,0,-58,-7,-95,-25r30,-66v18,14,39,25,58,25v15,0,37,-12,37,-33v5,-46,-45,-38,-86,-38r46,-102v-142,-19,-228,-123,-228,-254v0,-142,108,-252,276,-252v75,0,118,22,166,46r-55,92v-21,-15,-50,-39,-107,-39v-81,0,-152,68,-152,148v0,93,73,164,167,164v57,0,86,-18,110,-29","w":516},"\u00e9":{"d":"370,-681r-92,165r-88,0r76,-165r104,0xm428,0r-338,0r0,-491r327,0r0,91r-208,0r0,104r171,0r0,91r-171,0r0,114r219,0r0,91","w":478},"\u00e8":{"d":"303,-516r-88,0r-92,-165r104,0xm428,0r-338,0r0,-491r327,0r0,91r-208,0r0,104r171,0r0,91r-171,0r0,114r219,0r0,91","w":478},"\u00ea":{"d":"394,-515r-94,0r-41,-71r-41,71r-94,0r91,-165r87,0xm428,0r-338,0r0,-491r327,0r0,91r-208,0r0,104r171,0r0,91r-171,0r0,114r219,0r0,91","w":478},"\u00eb":{"d":"397,-566v0,32,-31,57,-58,57v-27,0,-58,-25,-58,-57v0,-32,31,-58,58,-58v27,0,58,26,58,58xm244,-566v0,32,-31,57,-58,57v-27,0,-58,-25,-58,-57v0,-32,31,-58,58,-58v27,0,58,26,58,58xm428,0r-338,0r0,-491r327,0r0,91r-208,0r0,104r171,0r0,91r-171,0r0,114r219,0r0,91","w":478},"\u00ed":{"d":"282,-681r-92,165r-89,0r77,-165r104,0xm215,0r-119,0r0,-491r119,0r0,491","w":310},"\u00ec":{"d":"205,-516r-89,0r-92,-165r104,0xm215,0r-119,0r0,-491r119,0r0,491","w":310},"\u00ee":{"d":"290,-515r-94,0r-41,-71r-41,71r-93,0r91,-165r87,0xm215,0r-119,0r0,-491r119,0r0,491","w":310},"\u00ef":{"d":"282,-566v0,32,-31,57,-58,57v-27,0,-58,-25,-58,-57v0,-32,31,-58,58,-58v27,0,58,26,58,58xm147,-566v0,32,-32,57,-59,57v-26,0,-58,-25,-58,-57v0,-32,32,-58,58,-58v27,0,59,26,59,58xm215,0r-119,0r0,-491r119,0r0,491","w":310},"\u00f1":{"d":"500,-566v-30,35,-68,57,-116,57v-58,0,-85,-46,-116,-46v-17,0,-40,15,-58,33r-42,-59v34,-27,64,-51,111,-51v53,0,83,50,114,50v14,0,52,-26,63,-40xm555,1r-118,0r-214,-318r0,317r-110,0r0,-491r128,0r204,320r0,-320r110,0r0,492","w":668},"\u00f3":{"d":"455,-681r-92,165r-88,0r77,-165r103,0xm601,-245v0,153,-109,255,-277,255v-169,0,-278,-102,-278,-255v-1,-156,107,-255,278,-255v171,0,277,99,277,255xm474,-245v0,-87,-71,-162,-150,-162v-80,0,-151,75,-151,162v0,87,71,162,151,162v79,0,150,-75,150,-162","w":647},"\u00f2":{"d":"370,-516r-89,0r-92,-165r104,0xm601,-245v0,153,-109,255,-277,255v-169,0,-278,-102,-278,-255v-1,-156,107,-255,278,-255v171,0,277,99,277,255xm474,-245v0,-87,-71,-162,-150,-162v-80,0,-151,75,-151,162v0,87,71,162,151,162v79,0,150,-75,150,-162","w":647},"\u00f4":{"d":"460,-515r-94,0r-41,-71r-41,71r-94,0r92,-165r87,0xm601,-245v0,153,-109,255,-277,255v-169,0,-278,-102,-278,-255v-1,-156,107,-255,278,-255v171,0,277,99,277,255xm474,-245v0,-87,-71,-162,-150,-162v-80,0,-151,75,-151,162v0,87,71,162,151,162v79,0,150,-75,150,-162","w":647},"\u00f6":{"d":"468,-566v0,32,-31,57,-58,57v-27,0,-59,-25,-59,-57v0,-32,32,-58,59,-58v27,0,58,26,58,58xm299,-566v0,32,-31,57,-58,57v-27,0,-59,-25,-59,-57v0,-32,32,-58,59,-58v27,0,58,26,58,58xm601,-245v0,153,-109,255,-277,255v-169,0,-278,-102,-278,-255v-1,-156,107,-255,278,-255v171,0,277,99,277,255xm474,-245v0,-87,-71,-162,-150,-162v-80,0,-151,75,-151,162v0,87,71,162,151,162v79,0,150,-75,150,-162","w":647},"\u00f5":{"d":"495,-566v-30,35,-68,57,-116,57v-58,0,-84,-46,-116,-46v-16,0,-39,15,-58,33r-42,-59v35,-27,65,-51,111,-51v54,0,84,50,114,50v15,0,52,-26,63,-40xm601,-245v0,153,-109,255,-277,255v-169,0,-278,-102,-278,-255v-1,-156,107,-255,278,-255v171,0,277,99,277,255xm474,-245v0,-87,-71,-162,-150,-162v-80,0,-151,75,-151,162v0,87,71,162,151,162v79,0,150,-75,150,-162","w":647},"\u00fa":{"d":"444,-681r-93,165r-88,0r76,-165r105,0xm526,-193v0,88,-24,128,-72,167v-55,44,-242,43,-297,0v-48,-37,-69,-71,-69,-167r0,-298r119,0r0,303v0,61,40,102,105,102v68,0,98,-51,98,-102r0,-303r116,0r0,298","w":614},"\u00f9":{"d":"365,-516r-89,0r-92,-165r104,0xm526,-193v0,88,-24,128,-72,167v-55,44,-242,43,-297,0v-48,-37,-69,-71,-69,-167r0,-298r119,0r0,303v0,61,40,102,105,102v68,0,98,-51,98,-102r0,-303r116,0r0,298","w":614},"\u00fb":{"d":"446,-515r-93,0r-41,-71r-41,71r-94,0r91,-165r88,0xm526,-193v0,88,-24,128,-72,167v-55,44,-242,43,-297,0v-48,-37,-69,-71,-69,-167r0,-298r119,0r0,303v0,61,40,102,105,102v68,0,98,-51,98,-102r0,-303r116,0r0,298","w":614},"\u00fc":{"d":"458,-565v0,32,-32,57,-59,57v-27,0,-58,-25,-58,-57v0,-32,31,-58,58,-58v27,0,59,26,59,58xm280,-563v0,31,-32,57,-58,57v-28,0,-59,-26,-59,-57v0,-32,31,-59,59,-59v26,0,58,27,58,59xm526,-193v0,88,-24,128,-72,167v-55,44,-242,43,-297,0v-48,-37,-69,-71,-69,-167r0,-298r119,0r0,303v0,61,40,102,105,102v68,0,98,-51,98,-102r0,-303r116,0r0,298","w":614},"\u00b0":{"d":"286,-552v0,70,-56,126,-126,126v-65,0,-117,-52,-117,-117v0,-70,56,-126,126,-126v64,0,117,53,117,117xm227,-547v0,-35,-28,-63,-63,-63v-34,0,-62,28,-62,63v0,34,28,63,62,63v35,0,63,-29,63,-63","w":333},"\u00ae":{"d":"900,-243v0,227,-184,411,-410,411v-227,0,-411,-184,-411,-411v0,-226,184,-410,411,-410v226,0,410,184,410,410xm806,-243v0,-175,-141,-317,-316,-317v-175,0,-317,142,-317,317v0,175,142,317,317,317v175,0,316,-142,316,-317xm672,-6r-125,0r-104,-182r-19,0r0,182r-107,0r0,-472r171,0v126,0,184,46,184,143v0,80,-40,131,-111,142xm557,-326v3,-61,-63,-73,-133,-67r0,135v69,5,136,-7,133,-68","w":979},"\u00a9":{"d":"915,-243v0,227,-184,411,-411,411v-226,0,-410,-184,-410,-411v0,-226,184,-410,410,-410v227,0,411,184,411,410xm821,-243v0,-175,-142,-317,-317,-317v-175,0,-316,142,-316,317v0,175,141,317,316,317v175,0,317,-142,317,-317xm682,-50v-46,30,-99,48,-164,49v-146,0,-244,-95,-244,-237v-3,-170,144,-279,320,-235v27,8,45,16,85,42r-50,79v-106,-68,-238,-23,-235,112v-1,140,128,187,239,111","w":1009},"\u00b1":{"d":"512,-260r-196,0r0,156r-82,0r0,-156r-196,0r0,-82r196,0r0,-156r82,0r0,156r196,0r0,82xm512,0r-474,0r0,-82r474,0r0,82","w":550},"\u00b5":{"w":250},"\u00ac":{"w":250},"\u00c0":{"d":"367,-690r-92,0r-113,-118r111,0xm593,0r-132,0r-52,-163r-221,0r-54,163r-132,0r239,-660r113,0xm375,-270r-77,-239r-76,239r153,0","w":595},"\u00c3":{"d":"227,-796v36,-6,92,49,142,50v27,0,40,-6,84,-37r33,53v-32,34,-77,52,-129,56v-36,8,-109,-48,-143,-46v-23,-3,-51,15,-77,31r-33,-57v51,-32,67,-41,123,-50xm593,0r-132,0r-52,-163r-221,0r-54,163r-132,0r239,-660r113,0xm375,-270r-77,-239r-76,239r153,0","w":595},"\u00d5":{"d":"322,-816v36,-6,92,49,142,50v27,0,40,-6,84,-37r33,53v-32,34,-77,52,-129,56v-36,8,-109,-48,-143,-46v-23,-3,-51,15,-77,31r-33,-57v51,-32,67,-41,123,-50xm732,-330v0,201,-145,343,-350,343v-206,0,-351,-142,-351,-343v-1,-204,142,-342,351,-342v208,0,350,138,350,342xm598,-330v0,-133,-92,-233,-216,-233v-125,0,-217,100,-217,233v0,134,92,233,217,233v124,0,216,-99,216,-233","w":763},"\u00f7":{"d":"344,-427v0,37,-30,67,-67,67v-37,0,-67,-30,-67,-67v0,-37,30,-67,67,-67v37,0,67,30,67,67xm525,-196r-500,0r0,-82r500,0r0,82xm343,-48v0,37,-30,67,-67,67v-37,0,-67,-30,-67,-67v0,-37,30,-67,67,-67v37,0,67,30,67,67","w":550},"\u00ff":{"d":"383,-569v0,32,-31,57,-58,57v-27,0,-59,-25,-59,-57v0,-32,32,-58,59,-58v27,0,58,26,58,58xm224,-569v0,32,-33,58,-59,58v-27,0,-58,-26,-58,-58v0,-31,31,-58,58,-58v26,0,59,27,59,58xm457,-491r-165,286r0,205r-119,0r0,-205r-152,-286r129,0r91,173r96,-173r120,0","w":478},"\u00c2":{"d":"452,-691r-87,0r-65,-65r-65,65r-86,0r112,-117r79,0xm593,0r-132,0r-52,-163r-221,0r-54,163r-132,0r239,-660r113,0xm375,-270r-77,-239r-76,239r153,0","w":595},"\u00ca":{"d":"450,-691r-87,0r-65,-65r-65,65r-87,0r112,-117r80,0xm505,0r-415,0r0,-660r402,0r0,107r-276,0r0,163r226,0r0,107r-226,0r0,176r289,0r0,107","w":539},"\u00c1":{"d":"442,-808r-113,118r-93,0r94,-118r112,0xm593,0r-132,0r-52,-163r-221,0r-54,163r-132,0r239,-660r113,0xm375,-270r-77,-239r-76,239r153,0","w":595},"\u00cb":{"d":"450,-730v0,30,-25,54,-55,54v-30,0,-54,-24,-54,-54v0,-30,24,-55,54,-55v30,0,55,25,55,55xm276,-731v0,30,-24,55,-54,55v-30,0,-55,-25,-55,-55v0,-30,25,-54,55,-54v30,0,54,24,54,54xm505,0r-415,0r0,-660r402,0r0,107r-276,0r0,163r226,0r0,107r-226,0r0,176r289,0r0,107","w":539},"\u00c8":{"d":"373,-690r-93,0r-113,-118r111,0xm505,0r-415,0r0,-660r402,0r0,107r-276,0r0,163r226,0r0,107r-226,0r0,176r289,0r0,107","w":539},"\u00cd":{"d":"283,-808r-113,118r-93,0r94,-118r112,0xm213,0r-126,0r0,-660r126,0r0,660","w":300},"\u00ce":{"d":"302,-691r-87,0r-65,-65r-65,65r-86,0r111,-117r80,0xm213,0r-126,0r0,-660r126,0r0,660","w":300},"\u00cf":{"d":"278,-732v0,30,-24,54,-54,54v-30,0,-55,-24,-55,-54v0,-30,25,-55,55,-55v30,0,54,25,54,55xm134,-732v0,30,-24,54,-54,54v-30,0,-55,-24,-55,-54v0,-30,25,-55,55,-55v30,0,54,25,54,55xm213,0r-126,0r0,-660r126,0r0,660","w":300},"\u00cc":{"d":"226,-690r-93,0r-113,-118r112,0xm213,0r-126,0r0,-660r126,0r0,660","w":300},"\u00d3":{"d":"531,-808r-113,118r-93,0r95,-118r111,0xm732,-330v0,201,-145,343,-350,343v-206,0,-351,-142,-351,-343v-1,-204,142,-342,351,-342v208,0,350,138,350,342xm598,-330v0,-133,-92,-233,-216,-233v-125,0,-217,100,-217,233v0,134,92,233,217,233v124,0,216,-99,216,-233","w":763},"\u00d4":{"d":"537,-691r-87,0r-65,-65r-65,65r-87,0r112,-117r80,0xm732,-330v0,201,-145,343,-350,343v-206,0,-351,-142,-351,-343v-1,-204,142,-342,351,-342v208,0,350,138,350,342xm598,-330v0,-133,-92,-233,-216,-233v-125,0,-217,100,-217,233v0,134,92,233,217,233v124,0,216,-99,216,-233","w":763},"\u00d2":{"d":"444,-690r-93,0r-113,-118r112,0xm732,-330v0,201,-145,343,-350,343v-206,0,-351,-142,-351,-343v-1,-204,142,-342,351,-342v208,0,350,138,350,342xm598,-330v0,-133,-92,-233,-216,-233v-125,0,-217,100,-217,233v0,134,92,233,217,233v124,0,216,-99,216,-233","w":763},"\u00da":{"d":"499,-808r-113,118r-93,0r95,-118r111,0xm627,-258v0,121,-22,175,-91,223v-83,64,-290,65,-373,0v-68,-47,-90,-102,-90,-223r0,-402r125,0r0,409v0,98,51,147,156,147v96,0,147,-52,147,-147r0,-409r126,0r0,402","w":700},"\u00db":{"d":"505,-691r-87,0r-65,-65r-65,65r-86,0r112,-117r79,0xm627,-258v0,121,-22,175,-91,223v-83,64,-290,65,-373,0v-68,-47,-90,-102,-90,-223r0,-402r125,0r0,409v0,98,51,147,156,147v96,0,147,-52,147,-147r0,-409r126,0r0,402","w":700},"\u00d9":{"d":"407,-690r-93,0r-113,-118r111,0xm627,-258v0,121,-22,175,-91,223v-83,64,-290,65,-373,0v-68,-47,-90,-102,-90,-223r0,-402r125,0r0,409v0,98,51,147,156,147v96,0,147,-52,147,-147r0,-409r126,0r0,402","w":700},"\u00a0":{"w":250}}});